|--- 如果 dflag_2 不是 2
|   |--- dflag_1 <= 0.50 [最接近值: 1]
|   |   |--- dflag_9 <= 0.50 [最接近值: 9]
|   |   |   |--- dflag_8 <= 0.50 [最接近值: 8]
|   |   |   |   |--- dflag_7 <= 0.50 [最接近值: 7]
|   |   |   |   |   |--- dflag_6 <= 0.50 [最接近值: 6]
|   |   |   |   |   |   |--- dflag_3 <= 0.50 [最接近值: 3]
|   |   |   |   |   |   |   |--- dflag_4 <= 0.50 [最接近值: 4]
|   |   |   |   |   |   |   |   |--- eflag_2 <= 0.50 [最接近值: 2]
|   |   |   |   |   |   |   |   |   |--- bflag_1 <= 0.50 [最接近值: 1]
|   |   |   |   |   |   |   |   |   |   |--- bflag_9 <= 0.50 [最接近值: 9]
|   |   |   |   |   |   |   |   |   |   |   |--- truncated branch of depth 16
|   |   |   |   |   |   |   |   |   |   |--- bflag_9 >  0.50
|   |   |   |   |   |   |   |   |   |   |   |--- truncated branch of depth 9
|   |   |   |   |   |   |   |   |   |--- bflag_1 >  0.50
|   |   |   |   |   |   |   |   |   |   |--- aflag_a <= 0.50 [最接近值: a]
|   |   |   |   |   |   |   |   |   |   |   |--- class: 4
|   |   |   |   |   |   |   |   |   |   |--- aflag_a >  0.50
|   |   |   |   |   |   |   |   |   |   |   |--- truncated branch of depth 9
|   |   |   |   |   |   |   |   |--- eflag_2 >  0.50
|   |   |   |   |   |   |   |   |   |--- aflag_a <= 0.50 [最接近值: a]
|   |   |   |   |   |   |   |   |   |   |--- class: 8
|   |   |   |   |   |   |   |   |   |--- aflag_a >  0.50
|   |   |   |   |   |   |   |   |   |   |--- cflag_8 <= 0.50 [最接近值: 8]
|   |   |   |   |   |   |   |   |   |   |   |--- truncated branch of depth 8
|   |   |   |   |   |   |   |   |   |   |--- cflag_8 >  0.50
|   |   |   |   |   |   |   |   |   |   |   |--- class: 11
|   |   |   |   |   |   |   |--- dflag_4 >  0.50
|   |   |   |   |   |   |   |   |--- aflag_b <= 0.50 [最接近值: b]
|   |   |   |   |   |   |   |   |   |--- cflag_6 <= 0.50 [最接近值: 6]
|   |   |   |   |   |   |   |   |   |   |--- cflag_1 <= 0.50 [最接近值: 1]
|   |   |   |   |   |   |   |   |   |   |   |--- truncated branch of depth 16
|   |   |   |   |   |   |   |   |   |   |--- cflag_1 >  0.50
|   |   |   |   |   |   |   |   |   |   |   |--- truncated branch of depth 9
|   |   |   |   |   |   |   |   |   |--- cflag_6 >  0.50
|   |   |   |   |   |   |   |   |   |   |--- eflag_1 <= 0.50 [最接近值: 1]
|   |   |   |   |   |   |   |   |   |   |   |--- class: 8
|   |   |   |   |   |   |   |   |   |   |--- eflag_1 >  0.50
|   |   |   |   |   |   |   |   |   |   |   |--- truncated branch of depth 9
|   |   |   |   |   |   |   |   |--- aflag_b >  0.50
|   |   |   |   |   |   |   |   |   |--- eflag_1 <= 0.50 [最接近值: 1]
|   |   |   |   |   |   |   |   |   |   |--- class: 6
|   |   |   |   |   |   |   |   |   |--- eflag_1 >  0.50
|   |   |   |   |   |   |   |   |   |   |--- bflag_6 <= 0.50 [最接近值: 6]
|   |   |   |   |   |   |   |   |   |   |   |--- truncated branch of depth 8
|   |   |   |   |   |   |   |   |   |   |--- bflag_6 >  0.50
|   |   |   |   |   |   |   |   |   |   |   |--- class: 8
|   |   |   |   |   |   |--- dflag_3 >  0.50
|   |   |   |   |   |   |   |--- aflag_a <= 0.50 [最接近值: a]
|   |   |   |   |   |   |   |   |--- eflag_2 <= 0.50 [最接近值: 2]
|   |   |   |   |   |   |   |   |   |--- bflag_9 <= 0.50 [最接近值: 9]
|   |   |   |   |   |   |   |   |   |   |--- bflag_4 <= 0.50 [最接近值: 4]
|   |   |   |   |   |   |   |   |   |   |   |--- truncated branch of depth 7
|   |   |   |   |   |   |   |   |   |   |--- bflag_4 >  0.50
|   |   |   |   |   |   |   |   |   |   |   |--- class: 5
|   |   |   |   |   |   |   |   |   |--- bflag_9 >  0.50
|   |   |   |   |   |   |   |   |   |   |--- class: 10
|   |   |   |   |   |   |   |   |--- eflag_2 >  0.50
|   |   |   |   |   |   |   |   |   |--- class: 4
|   |   |   |   |   |   |   |--- aflag_a >  0.50
|   |   |   |   |   |   |   |   |--- cflag_8 <= 0.50 [最接近值: 8]
|   |   |   |   |   |   |   |   |   |--- cflag_1 <= 0.50 [最接近值: 1]
|   |   |   |   |   |   |   |   |   |   |--- cflag_6 <= 0.50 [最接近值: 6]
|   |   |   |   |   |   |   |   |   |   |   |--- truncated branch of depth 15
|   |   |   |   |   |   |   |   |   |   |--- cflag_6 >  0.50
|   |   |   |   |   |   |   |   |   |   |   |--- truncated branch of depth 10
|   |   |   |   |   |   |   |   |   |--- cflag_1 >  0.50
|   |   |   |   |   |   |   |   |   |   |--- eflag_1 <= 0.50 [最接近值: 1]
|   |   |   |   |   |   |   |   |   |   |   |--- class: 2
|   |   |   |   |   |   |   |   |   |   |--- eflag_1 >  0.50
|   |   |   |   |   |   |   |   |   |   |   |--- truncated branch of depth 7
|   |   |   |   |   |   |   |   |--- cflag_8 >  0.50
|   |   |   |   |   |   |   |   |   |--- eflag_1 <= 0.50 [最接近值: 1]
|   |   |   |   |   |   |   |   |   |   |--- class: 9
|   |   |   |   |   |   |   |   |   |--- eflag_1 >  0.50
|   |   |   |   |   |   |   |   |   |   |--- bflag_3 <= 0.50 [最接近值: 3]
|   |   |   |   |   |   |   |   |   |   |   |--- truncated branch of depth 8
|   |   |   |   |   |   |   |   |   |   |--- bflag_3 >  0.50
|   |   |   |   |   |   |   |   |   |   |   |--- class: 9
|   |   |   |   |   |--- dflag_6 >  0.50
|   |   |   |   |   |   |--- eflag_1 <= 0.50 [最接近值: 1]
|   |   |   |   |   |   |   |--- aflag_b <= 0.50 [最接近值: b]
|   |   |   |   |   |   |   |   |--- cflag_3 <= 0.50 [最接近值: 3]
|   |   |   |   |   |   |   |   |   |--- cflag_8 <= 0.50 [最接近值: 8]
|   |   |   |   |   |   |   |   |   |   |--- cflag_9 <= 0.50 [最接近值: 9]
|   |   |   |   |   |   |   |   |   |   |   |--- truncated branch of depth 6
|   |   |   |   |   |   |   |   |   |   |--- cflag_9 >  0.50
|   |   |   |   |   |   |   |   |   |   |   |--- class: 13
|   |   |   |   |   |   |   |   |   |--- cflag_8 >  0.50
|   |   |   |   |   |   |   |   |   |   |--- class: 12
|   |   |   |   |   |   |   |   |--- cflag_3 >  0.50
|   |   |   |   |   |   |   |   |   |--- class: 7
|   |   |   |   |   |   |   |--- aflag_b >  0.50
|   |   |   |   |   |   |   |   |--- class: 10
|   |   |   |   |   |   |--- eflag_1 >  0.50
|   |   |   |   |   |   |   |--- bflag_8 <= 0.50 [最接近值: 8]
|   |   |   |   |   |   |   |   |--- bflag_1 <= 0.50 [最接近值: 1]
|   |   |   |   |   |   |   |   |   |--- bflag_7 <= 0.50 [最接近值: 7]
|   |   |   |   |   |   |   |   |   |   |--- bflag_9 <= 0.50 [最接近值: 9]
|   |   |   |   |   |   |   |   |   |   |   |--- truncated branch of depth 14
|   |   |   |   |   |   |   |   |   |   |--- bflag_9 >  0.50
|   |   |   |   |   |   |   |   |   |   |   |--- truncated branch of depth 9
|   |   |   |   |   |   |   |   |   |--- bflag_7 >  0.50
|   |   |   |   |   |   |   |   |   |   |--- aflag_b <= 0.50 [最接近值: b]
|   |   |   |   |   |   |   |   |   |   |   |--- truncated branch of depth 9
|   |   |   |   |   |   |   |   |   |   |--- aflag_b >  0.50
|   |   |   |   |   |   |   |   |   |   |   |--- class: 11
|   |   |   |   |   |   |   |   |--- bflag_1 >  0.50
|   |   |   |   |   |   |   |   |   |--- aflag_b <= 0.50 [最接近值: b]
|   |   |   |   |   |   |   |   |   |   |--- cflag_6 <= 0.50 [最接近值: 6]
|   |   |   |   |   |   |   |   |   |   |   |--- truncated branch of depth 8
|   |   |   |   |   |   |   |   |   |   |--- cflag_6 >  0.50
|   |   |   |   |   |   |   |   |   |   |   |--- class: 5
|   |   |   |   |   |   |   |   |   |--- aflag_b >  0.50
|   |   |   |   |   |   |   |   |   |   |--- class: 5
|   |   |   |   |   |   |   |--- bflag_8 >  0.50
|   |   |   |   |   |   |   |   |--- aflag_a <= 0.50 [最接近值: a]
|   |   |   |   |   |   |   |   |   |--- class: 12
|   |   |   |   |   |   |   |   |--- aflag_a >  0.50
|   |   |   |   |   |   |   |   |   |--- cflag_8 <= 0.50 [最接近值: 8]
|   |   |   |   |   |   |   |   |   |   |--- cflag_9 <= 0.50 [最接近值: 9]
|   |   |   |   |   |   |   |   |   |   |   |--- truncated branch of depth 7
|   |   |   |   |   |   |   |   |   |   |--- cflag_9 >  0.50
|   |   |   |   |   |   |   |   |   |   |   |--- class: 15
|   |   |   |   |   |   |   |   |   |--- cflag_8 >  0.50
|   |   |   |   |   |   |   |   |   |   |--- class: 14
|   |   |   |   |--- dflag_7 >  0.50
|   |   |   |   |   |--- eflag_1 <= 0.50 [最接近值: 1]
|   |   |   |   |   |   |--- aflag_a <= 0.50 [最接近值: a]
|   |   |   |   |   |   |   |--- class: 12
|   |   |   |   |   |   |--- aflag_a >  0.50
|   |   |   |   |   |   |   |--- cflag_5 <= 0.50 [最接近值: 5]
|   |   |   |   |   |   |   |   |--- cflag_4 <= 0.50 [最接近值: 4]
|   |   |   |   |   |   |   |   |   |--- cflag_1 <= 0.50 [最接近值: 1]
|   |   |   |   |   |   |   |   |   |   |--- cflag_8 <= 0.50 [最接近值: 8]
|   |   |   |   |   |   |   |   |   |   |   |--- truncated branch of depth 5
|   |   |   |   |   |   |   |   |   |   |--- cflag_8 >  0.50
|   |   |   |   |   |   |   |   |   |   |   |--- class: 13
|   |   |   |   |   |   |   |   |   |--- cflag_1 >  0.50
|   |   |   |   |   |   |   |   |   |   |--- class: 6
|   |   |   |   |   |   |   |   |--- cflag_4 >  0.50
|   |   |   |   |   |   |   |   |   |--- class: 9
|   |   |   |   |   |   |   |--- cflag_5 >  0.50
|   |   |   |   |   |   |   |   |--- class: 10
|   |   |   |   |   |--- eflag_1 >  0.50
|   |   |   |   |   |   |--- bflag_4 <= 0.50 [最接近值: 4]
|   |   |   |   |   |   |   |--- bflag_9 <= 0.50 [最接近值: 9]
|   |   |   |   |   |   |   |   |--- bflag_6 <= 0.50 [最接近值: 6]
|   |   |   |   |   |   |   |   |   |--- bflag_7 <= 0.50 [最接近值: 7]
|   |   |   |   |   |   |   |   |   |   |--- bflag_2 <= 0.50 [最接近值: 2]
|   |   |   |   |   |   |   |   |   |   |   |--- truncated branch of depth 13
|   |   |   |   |   |   |   |   |   |   |--- bflag_2 >  0.50
|   |   |   |   |   |   |   |   |   |   |   |--- truncated branch of depth 10
|   |   |   |   |   |   |   |   |   |--- bflag_7 >  0.50
|   |   |   |   |   |   |   |   |   |   |--- aflag_b <= 0.50 [最接近值: b]
|   |   |   |   |   |   |   |   |   |   |   |--- truncated branch of depth 8
|   |   |   |   |   |   |   |   |   |   |--- aflag_b >  0.50
|   |   |   |   |   |   |   |   |   |   |   |--- class: 12
|   |   |   |   |   |   |   |   |--- bflag_6 >  0.50
|   |   |   |   |   |   |   |   |   |--- aflag_a <= 0.50 [最接近值: a]
|   |   |   |   |   |   |   |   |   |   |--- class: 11
|   |   |   |   |   |   |   |   |   |--- aflag_a >  0.50
|   |   |   |   |   |   |   |   |   |   |--- cflag_9 <= 0.50 [最接近值: 9]
|   |   |   |   |   |   |   |   |   |   |   |--- truncated branch of depth 7
|   |   |   |   |   |   |   |   |   |   |--- cflag_9 >  0.50
|   |   |   |   |   |   |   |   |   |   |   |--- class: 13
|   |   |   |   |   |   |   |--- bflag_9 >  0.50
|   |   |   |   |   |   |   |   |--- aflag_a <= 0.50 [最接近值: a]
|   |   |   |   |   |   |   |   |   |--- class: 14
|   |   |   |   |   |   |   |   |--- aflag_a >  0.50
|   |   |   |   |   |   |   |   |   |--- cflag_1 <= 0.50 [最接近值: 1]
|   |   |   |   |   |   |   |   |   |   |--- cflag_8 <= 0.50 [最接近值: 8]
|   |   |   |   |   |   |   |   |   |   |   |--- truncated branch of depth 7
|   |   |   |   |   |   |   |   |   |   |--- cflag_8 >  0.50
|   |   |   |   |   |   |   |   |   |   |   |--- class: 15
|   |   |   |   |   |   |   |   |   |--- cflag_1 >  0.50
|   |   |   |   |   |   |   |   |   |   |--- class: 8
|   |   |   |   |   |   |--- bflag_4 >  0.50
|   |   |   |   |   |   |   |--- aflag_b <= 0.50 [最接近值: b]
|   |   |   |   |   |   |   |   |--- cflag_2 <= 0.50 [最接近值: 2]
|   |   |   |   |   |   |   |   |   |--- cflag_7 <= 0.50 [最接近值: 7]
|   |   |   |   |   |   |   |   |   |   |--- cflag_8 <= 0.50 [最接近值: 8]
|   |   |   |   |   |   |   |   |   |   |   |--- truncated branch of depth 6
|   |   |   |   |   |   |   |   |   |   |--- cflag_8 >  0.50
|   |   |   |   |   |   |   |   |   |   |   |--- class: 10
|   |   |   |   |   |   |   |   |   |--- cflag_7 >  0.50
|   |   |   |   |   |   |   |   |   |   |--- class: 9
|   |   |   |   |   |   |   |   |--- cflag_2 >  0.50
|   |   |   |   |   |   |   |   |   |--- class: 4
|   |   |   |   |   |   |   |--- aflag_b >  0.50
|   |   |   |   |   |   |   |   |--- class: 9
|   |   |   |--- dflag_8 >  0.50
|   |   |   |   |--- eflag_2 <= 0.50 [最接近值: 2]
|   |   |   |   |   |--- bflag_5 <= 0.50 [最接近值: 5]
|   |   |   |   |   |   |--- bflag_6 <= 0.50 [最接近值: 6]
|   |   |   |   |   |   |   |--- bflag_9 <= 0.50 [最接近值: 9]
|   |   |   |   |   |   |   |   |--- bflag_1 <= 0.50 [最接近值: 1]
|   |   |   |   |   |   |   |   |   |--- bflag_7 <= 0.50 [最接近值: 7]
|   |   |   |   |   |   |   |   |   |   |--- bflag_8 <= 0.50 [最接近值: 8]
|   |   |   |   |   |   |   |   |   |   |   |--- truncated branch of depth 12
|   |   |   |   |   |   |   |   |   |   |--- bflag_8 >  0.50
|   |   |   |   |   |   |   |   |   |   |   |--- truncated branch of depth 10
|   |   |   |   |   |   |   |   |   |--- bflag_7 >  0.50
|   |   |   |   |   |   |   |   |   |   |--- aflag_b <= 0.50 [最接近值: b]
|   |   |   |   |   |   |   |   |   |   |   |--- truncated branch of depth 8
|   |   |   |   |   |   |   |   |   |   |--- aflag_b >  0.50
|   |   |   |   |   |   |   |   |   |   |   |--- class: 13
|   |   |   |   |   |   |   |   |--- bflag_1 >  0.50
|   |   |   |   |   |   |   |   |   |--- aflag_a <= 0.50 [最接近值: a]
|   |   |   |   |   |   |   |   |   |   |--- class: 7
|   |   |   |   |   |   |   |   |   |--- aflag_a >  0.50
|   |   |   |   |   |   |   |   |   |   |--- cflag_6 <= 0.50 [最接近值: 6]
|   |   |   |   |   |   |   |   |   |   |   |--- truncated branch of depth 8
|   |   |   |   |   |   |   |   |   |   |--- cflag_6 >  0.50
|   |   |   |   |   |   |   |   |   |   |   |--- class: 5
|   |   |   |   |   |   |   |--- bflag_9 >  0.50
|   |   |   |   |   |   |   |   |--- aflag_b <= 0.50 [最接近值: b]
|   |   |   |   |   |   |   |   |   |--- cflag_2 <= 0.50 [最接近值: 2]
|   |   |   |   |   |   |   |   |   |   |--- cflag_8 <= 0.50 [最接近值: 8]
|   |   |   |   |   |   |   |   |   |   |   |--- truncated branch of depth 6
|   |   |   |   |   |   |   |   |   |   |--- cflag_8 >  0.50
|   |   |   |   |   |   |   |   |   |   |   |--- class: 15
|   |   |   |   |   |   |   |   |   |--- cflag_2 >  0.50
|   |   |   |   |   |   |   |   |   |   |--- class: 9
|   |   |   |   |   |   |   |   |--- aflag_b >  0.50
|   |   |   |   |   |   |   |   |   |--- class: 15
|   |   |   |   |   |   |--- bflag_6 >  0.50
|   |   |   |   |   |   |   |--- aflag_b <= 0.50 [最接近值: b]
|   |   |   |   |   |   |   |   |--- cflag_9 <= 0.50 [最接近值: 9]
|   |   |   |   |   |   |   |   |   |--- cflag_8 <= 0.50 [最接近值: 8]
|   |   |   |   |   |   |   |   |   |   |--- cflag_2 <= 0.50 [最接近值: 2]
|   |   |   |   |   |   |   |   |   |   |   |--- truncated branch of depth 6
|   |   |   |   |   |   |   |   |   |   |--- cflag_2 >  0.50
|   |   |   |   |   |   |   |   |   |   |   |--- class: 6
|   |   |   |   |   |   |   |   |   |--- cflag_8 >  0.50
|   |   |   |   |   |   |   |   |   |   |--- class: 12
|   |   |   |   |   |   |   |   |--- cflag_9 >  0.50
|   |   |   |   |   |   |   |   |   |--- class: 13
|   |   |   |   |   |   |   |--- aflag_b >  0.50
|   |   |   |   |   |   |   |   |--- class: 12
|   |   |   |   |   |--- bflag_5 >  0.50
|   |   |   |   |   |   |--- aflag_a <= 0.50 [最接近值: a]
|   |   |   |   |   |   |   |--- class: 11
|   |   |   |   |   |   |--- aflag_a >  0.50
|   |   |   |   |   |   |   |--- cflag_6 <= 0.50 [最接近值: 6]
|   |   |   |   |   |   |   |   |--- cflag_2 <= 0.50 [最接近值: 2]
|   |   |   |   |   |   |   |   |   |--- cflag_7 <= 0.50 [最接近值: 7]
|   |   |   |   |   |   |   |   |   |   |--- cflag_4 <= 0.50 [最接近值: 4]
|   |   |   |   |   |   |   |   |   |   |   |--- truncated branch of depth 5
|   |   |   |   |   |   |   |   |   |   |--- cflag_4 >  0.50
|   |   |   |   |   |   |   |   |   |   |   |--- class: 7
|   |   |   |   |   |   |   |   |   |--- cflag_7 >  0.50
|   |   |   |   |   |   |   |   |   |   |--- class: 10
|   |   |   |   |   |   |   |   |--- cflag_2 >  0.50
|   |   |   |   |   |   |   |   |   |--- class: 5
|   |   |   |   |   |   |   |--- cflag_6 >  0.50
|   |   |   |   |   |   |   |   |--- class: 9
|   |   |   |   |--- eflag_2 >  0.50
|   |   |   |   |   |--- aflag_b <= 0.50 [最接近值: b]
|   |   |   |   |   |   |--- cflag_6 <= 0.50 [最接近值: 6]
|   |   |   |   |   |   |   |--- cflag_4 <= 0.50 [最接近值: 4]
|   |   |   |   |   |   |   |   |--- cflag_1 <= 0.50 [最接近值: 1]
|   |   |   |   |   |   |   |   |   |--- cflag_3 <= 0.50 [最接近值: 3]
|   |   |   |   |   |   |   |   |   |   |--- cflag_2 <= 0.50 [最接近值: 2]
|   |   |   |   |   |   |   |   |   |   |   |--- truncated branch of depth 4
|   |   |   |   |   |   |   |   |   |   |--- cflag_2 >  0.50
|   |   |   |   |   |   |   |   |   |   |   |--- class: 8
|   |   |   |   |   |   |   |   |   |--- cflag_3 >  0.50
|   |   |   |   |   |   |   |   |   |   |--- class: 9
|   |   |   |   |   |   |   |   |--- cflag_1 >  0.50
|   |   |   |   |   |   |   |   |   |--- class: 7
|   |   |   |   |   |   |   |--- cflag_4 >  0.50
|   |   |   |   |   |   |   |   |--- class: 10
|   |   |   |   |   |   |--- cflag_6 >  0.50
|   |   |   |   |   |   |   |--- class: 12
|   |   |   |   |   |--- aflag_b >  0.50
|   |   |   |   |   |   |--- class: 14
|   |   |--- dflag_9 >  0.50
|   |   |   |--- aflag_a <= 0.50 [最接近值: a]
|   |   |   |   |--- eflag_2 <= 0.50 [最接近值: 2]
|   |   |   |   |   |--- bflag_9 <= 0.50 [最接近值: 9]
|   |   |   |   |   |   |--- bflag_7 <= 0.50 [最接近值: 7]
|   |   |   |   |   |   |   |--- bflag_4 <= 0.50 [最接近值: 4]
|   |   |   |   |   |   |   |   |--- bflag_3 <= 0.50 [最接近值: 3]
|   |   |   |   |   |   |   |   |   |--- bflag_2 <= 0.50 [最接近值: 2]
|   |   |   |   |   |   |   |   |   |   |--- bflag_5 <= 0.50 [最接近值: 5]
|   |   |   |   |   |   |   |   |   |   |   |--- truncated branch of depth 3
|   |   |   |   |   |   |   |   |   |   |--- bflag_5 >  0.50
|   |   |   |   |   |   |   |   |   |   |   |--- class: 12
|   |   |   |   |   |   |   |   |   |--- bflag_2 >  0.50
|   |   |   |   |   |   |   |   |   |   |--- class: 9
|   |   |   |   |   |   |   |   |--- bflag_3 >  0.50
|   |   |   |   |   |   |   |   |   |--- class: 10
|   |   |   |   |   |   |   |--- bflag_4 >  0.50
|   |   |   |   |   |   |   |   |--- class: 11
|   |   |   |   |   |   |--- bflag_7 >  0.50
|   |   |   |   |   |   |   |--- class: 14
|   |   |   |   |   |--- bflag_9 >  0.50
|   |   |   |   |   |   |--- class: 16
|   |   |   |   |--- eflag_2 >  0.50
|   |   |   |   |   |--- class: 16
|   |   |   |--- aflag_a >  0.50
|   |   |   |   |--- cflag_7 <= 0.50 [最接近值: 7]
|   |   |   |   |   |--- cflag_9 <= 0.50 [最接近值: 9]
|   |   |   |   |   |   |--- cflag_5 <= 0.50 [最接近值: 5]
|   |   |   |   |   |   |   |--- cflag_4 <= 0.50 [最接近值: 4]
|   |   |   |   |   |   |   |   |--- cflag_3 <= 0.50 [最接近值: 3]
|   |   |   |   |   |   |   |   |   |--- cflag_1 <= 0.50 [最接近值: 1]
|   |   |   |   |   |   |   |   |   |   |--- cflag_2 <= 0.50 [最接近值: 2]
|   |   |   |   |   |   |   |   |   |   |   |--- truncated branch of depth 11
|   |   |   |   |   |   |   |   |   |   |--- cflag_2 >  0.50
|   |   |   |   |   |   |   |   |   |   |   |--- truncated branch of depth 10
|   |   |   |   |   |   |   |   |   |--- cflag_1 >  0.50
|   |   |   |   |   |   |   |   |   |   |--- eflag_2 <= 0.50 [最接近值: 2]
|   |   |   |   |   |   |   |   |   |   |   |--- truncated branch of depth 8
|   |   |   |   |   |   |   |   |   |   |--- eflag_2 >  0.50
|   |   |   |   |   |   |   |   |   |   |   |--- class: 8
|   |   |   |   |   |   |   |   |--- cflag_3 >  0.50
|   |   |   |   |   |   |   |   |   |--- eflag_1 <= 0.50 [最接近值: 1]
|   |   |   |   |   |   |   |   |   |   |--- class: 10
|   |   |   |   |   |   |   |   |   |--- eflag_1 >  0.50
|   |   |   |   |   |   |   |   |   |   |--- bflag_2 <= 0.50 [最接近值: 2]
|   |   |   |   |   |   |   |   |   |   |   |--- truncated branch of depth 8
|   |   |   |   |   |   |   |   |   |   |--- bflag_2 >  0.50
|   |   |   |   |   |   |   |   |   |   |   |--- class: 3
|   |   |   |   |   |   |   |--- cflag_4 >  0.50
|   |   |   |   |   |   |   |   |--- eflag_1 <= 0.50 [最接近值: 1]
|   |   |   |   |   |   |   |   |   |--- class: 11
|   |   |   |   |   |   |   |   |--- eflag_1 >  0.50
|   |   |   |   |   |   |   |   |   |--- bflag_5 <= 0.50 [最接近值: 5]
|   |   |   |   |   |   |   |   |   |   |--- bflag_4 <= 0.50 [最接近值: 4]
|   |   |   |   |   |   |   |   |   |   |   |--- truncated branch of depth 7
|   |   |   |   |   |   |   |   |   |   |--- bflag_4 >  0.50
|   |   |   |   |   |   |   |   |   |   |   |--- class: 6
|   |   |   |   |   |   |   |   |   |--- bflag_5 >  0.50
|   |   |   |   |   |   |   |   |   |   |--- class: 7
|   |   |   |   |   |   |--- cflag_5 >  0.50
|   |   |   |   |   |   |   |--- eflag_1 <= 0.50 [最接近值: 1]
|   |   |   |   |   |   |   |   |--- class: 12
|   |   |   |   |   |   |   |--- eflag_1 >  0.50
|   |   |   |   |   |   |   |   |--- bflag_9 <= 0.50 [最接近值: 9]
|   |   |   |   |   |   |   |   |   |--- bflag_6 <= 0.50 [最接近值: 6]
|   |   |   |   |   |   |   |   |   |   |--- bflag_1 <= 0.50 [最接近值: 1]
|   |   |   |   |   |   |   |   |   |   |   |--- truncated branch of depth 6
|   |   |   |   |   |   |   |   |   |   |--- bflag_1 >  0.50
|   |   |   |   |   |   |   |   |   |   |   |--- class: 4
|   |   |   |   |   |   |   |   |   |--- bflag_6 >  0.50
|   |   |   |   |   |   |   |   |   |   |--- class: 9
|   |   |   |   |   |   |   |   |--- bflag_9 >  0.50
|   |   |   |   |   |   |   |   |   |--- class: 12
|   |   |   |   |   |--- cflag_9 >  0.50
|   |   |   |   |   |   |--- eflag_2 <= 0.50 [最接近值: 2]
|   |   |   |   |   |   |   |--- bflag_2 <= 0.50 [最接近值: 2]
|   |   |   |   |   |   |   |   |--- bflag_5 <= 0.50 [最接近值: 5]
|   |   |   |   |   |   |   |   |   |--- bflag_6 <= 0.50 [最接近值: 6]
|   |   |   |   |   |   |   |   |   |   |--- bflag_9 <= 0.50 [最接近值: 9]
|   |   |   |   |   |   |   |   |   |   |   |--- truncated branch of depth 4
|   |   |   |   |   |   |   |   |   |   |--- bflag_9 >  0.50
|   |   |   |   |   |   |   |   |   |   |   |--- class: 16
|   |   |   |   |   |   |   |   |   |--- bflag_6 >  0.50
|   |   |   |   |   |   |   |   |   |   |--- class: 13
|   |   |   |   |   |   |   |   |--- bflag_5 >  0.50
|   |   |   |   |   |   |   |   |   |--- class: 12
|   |   |   |   |   |   |   |--- bflag_2 >  0.50
|   |   |   |   |   |   |   |   |--- class: 9
|   |   |   |   |   |   |--- eflag_2 >  0.50
|   |   |   |   |   |   |   |--- class: 16
|   |   |   |   |--- cflag_7 >  0.50
|   |   |   |   |   |--- eflag_1 <= 0.50 [最接近值: 1]
|   |   |   |   |   |   |--- class: 14
|   |   |   |   |   |--- eflag_1 >  0.50
|   |   |   |   |   |   |--- bflag_9 <= 0.50 [最接近值: 9]
|   |   |   |   |   |   |   |--- bflag_7 <= 0.50 [最接近值: 7]
|   |   |   |   |   |   |   |   |--- bflag_8 <= 0.50 [最接近值: 8]
|   |   |   |   |   |   |   |   |   |--- bflag_1 <= 0.50 [最接近值: 1]
|   |   |   |   |   |   |   |   |   |   |--- bflag_3 <= 0.50 [最接近值: 3]
|   |   |   |   |   |   |   |   |   |   |   |--- truncated branch of depth 3
|   |   |   |   |   |   |   |   |   |   |--- bflag_3 >  0.50
|   |   |   |   |   |   |   |   |   |   |   |--- class: 8
|   |   |   |   |   |   |   |   |   |--- bflag_1 >  0.50
|   |   |   |   |   |   |   |   |   |   |--- class: 6
|   |   |   |   |   |   |   |   |--- bflag_8 >  0.50
|   |   |   |   |   |   |   |   |   |--- class: 13
|   |   |   |   |   |   |   |--- bflag_7 >  0.50
|   |   |   |   |   |   |   |   |--- class: 12
|   |   |   |   |   |   |--- bflag_9 >  0.50
|   |   |   |   |   |   |   |--- class: 14
|   |--- dflag_1 >  0.50
|   |   |--- aflag_a <= 0.50 [最接近值: a]
|   |   |   |--- eflag_1 <= 0.50 [最接近值: 1]
|   |   |   |   |--- class: 0
|   |   |   |--- eflag_1 >  0.50
|   |   |   |   |--- bflag_6 <= 0.50 [最接近值: 6]
|   |   |   |   |   |--- bflag_4 <= 0.50 [最接近值: 4]
|   |   |   |   |   |   |--- bflag_1 <= 0.50 [最接近值: 1]
|   |   |   |   |   |   |   |--- bflag_9 <= 0.50 [最接近值: 9]
|   |   |   |   |   |   |   |   |--- bflag_5 <= 0.50 [最接近值: 5]
|   |   |   |   |   |   |   |   |   |--- bflag_2 <= 0.50 [最接近值: 2]
|   |   |   |   |   |   |   |   |   |   |--- bflag_7 <= 0.50 [最接近值: 7]
|   |   |   |   |   |   |   |   |   |   |   |--- truncated branch of depth 2
|   |   |   |   |   |   |   |   |   |   |--- bflag_7 >  0.50
|   |   |   |   |   |   |   |   |   |   |   |--- class: 6
|   |   |   |   |   |   |   |   |   |--- bflag_2 >  0.50
|   |   |   |   |   |   |   |   |   |   |--- class: 1
|   |   |   |   |   |   |   |   |--- bflag_5 >  0.50
|   |   |   |   |   |   |   |   |   |--- class: 4
|   |   |   |   |   |   |   |--- bflag_9 >  0.50
|   |   |   |   |   |   |   |   |--- class: 8
|   |   |   |   |   |   |--- bflag_1 >  0.50
|   |   |   |   |   |   |   |--- class: 0
|   |   |   |   |   |--- bflag_4 >  0.50
|   |   |   |   |   |   |--- class: 3
|   |   |   |   |--- bflag_6 >  0.50
|   |   |   |   |   |--- class: 5
|   |   |--- aflag_a >  0.50
|   |   |   |--- cflag_5 <= 0.50 [最接近值: 5]
|   |   |   |   |--- cflag_2 <= 0.50 [最接近值: 2]
|   |   |   |   |   |--- cflag_7 <= 0.50 [最接近值: 7]
|   |   |   |   |   |   |--- cflag_3 <= 0.50 [最接近值: 3]
|   |   |   |   |   |   |   |--- cflag_1 <= 0.50 [最接近值: 1]
|   |   |   |   |   |   |   |   |--- cflag_6 <= 0.50 [最接近值: 6]
|   |   |   |   |   |   |   |   |   |--- cflag_4 <= 0.50 [最接近值: 4]
|   |   |   |   |   |   |   |   |   |   |--- eflag_1 <= 0.50 [最接近值: 1]
|   |   |   |   |   |   |   |   |   |   |   |--- truncated branch of depth 2
|   |   |   |   |   |   |   |   |   |   |--- eflag_1 >  0.50
|   |   |   |   |   |   |   |   |   |   |   |--- truncated branch of depth 10
|   |   |   |   |   |   |   |   |   |--- cflag_4 >  0.50
|   |   |   |   |   |   |   |   |   |   |--- eflag_2 <= 0.50 [最接近值: 2]
|   |   |   |   |   |   |   |   |   |   |   |--- truncated branch of depth 8
|   |   |   |   |   |   |   |   |   |   |--- eflag_2 >  0.50
|   |   |   |   |   |   |   |   |   |   |   |--- class: 3
|   |   |   |   |   |   |   |   |--- cflag_6 >  0.50
|   |   |   |   |   |   |   |   |   |--- eflag_1 <= 0.50 [最接近值: 1]
|   |   |   |   |   |   |   |   |   |   |--- class: 5
|   |   |   |   |   |   |   |   |   |--- eflag_1 >  0.50
|   |   |   |   |   |   |   |   |   |   |--- bflag_9 <= 0.50 [最接近值: 9]
|   |   |   |   |   |   |   |   |   |   |   |--- truncated branch of depth 7
|   |   |   |   |   |   |   |   |   |   |--- bflag_9 >  0.50
|   |   |   |   |   |   |   |   |   |   |   |--- class: 13
|   |   |   |   |   |   |   |--- cflag_1 >  0.50
|   |   |   |   |   |   |   |   |--- eflag_2 <= 0.50 [最接近值: 2]
|   |   |   |   |   |   |   |   |   |--- bflag_3 <= 0.50 [最接近值: 3]
|   |   |   |   |   |   |   |   |   |   |--- bflag_1 <= 0.50 [最接近值: 1]
|   |   |   |   |   |   |   |   |   |   |   |--- truncated branch of depth 7
|   |   |   |   |   |   |   |   |   |   |--- bflag_1 >  0.50
|   |   |   |   |   |   |   |   |   |   |   |--- class: 0
|   |   |   |   |   |   |   |   |   |--- bflag_3 >  0.50
|   |   |   |   |   |   |   |   |   |   |--- class: 2
|   |   |   |   |   |   |   |   |--- eflag_2 >  0.50
|   |   |   |   |   |   |   |   |   |--- class: 0
|   |   |   |   |   |   |--- cflag_3 >  0.50
|   |   |   |   |   |   |   |--- eflag_1 <= 0.50 [最接近值: 1]
|   |   |   |   |   |   |   |   |--- class: 2
|   |   |   |   |   |   |   |--- eflag_1 >  0.50
|   |   |   |   |   |   |   |   |--- bflag_5 <= 0.50 [最接近值: 5]
|   |   |   |   |   |   |   |   |   |--- bflag_2 <= 0.50 [最接近值: 2]
|   |   |   |   |   |   |   |   |   |   |--- bflag_9 <= 0.50 [最接近值: 9]
|   |   |   |   |   |   |   |   |   |   |   |--- truncated branch of depth 6
|   |   |   |   |   |   |   |   |   |   |--- bflag_9 >  0.50
|   |   |   |   |   |   |   |   |   |   |   |--- class: 10
|   |   |   |   |   |   |   |   |   |--- bflag_2 >  0.50
|   |   |   |   |   |   |   |   |   |   |--- class: 3
|   |   |   |   |   |   |   |   |--- bflag_5 >  0.50
|   |   |   |   |   |   |   |   |   |--- class: 6
|   |   |   |   |   |--- cflag_7 >  0.50
|   |   |   |   |   |   |--- eflag_2 <= 0.50 [最接近值: 2]
|   |   |   |   |   |   |   |--- bflag_4 <= 0.50 [最接近值: 4]
|   |   |   |   |   |   |   |   |--- bflag_1 <= 0.50 [最接近值: 1]
|   |   |   |   |   |   |   |   |   |--- bflag_5 <= 0.50 [最接近值: 5]
|   |   |   |   |   |   |   |   |   |   |--- bflag_7 <= 0.50 [最接近值: 7]
|   |   |   |   |   |   |   |   |   |   |   |--- truncated branch of depth 5
|   |   |   |   |   |   |   |   |   |   |--- bflag_7 >  0.50
|   |   |   |   |   |   |   |   |   |   |   |--- class: 12
|   |   |   |   |   |   |   |   |   |--- bflag_5 >  0.50
|   |   |   |   |   |   |   |   |   |   |--- class: 10
|   |   |   |   |   |   |   |   |--- bflag_1 >  0.50
|   |   |   |   |   |   |   |   |   |--- class: 6
|   |   |   |   |   |   |   |--- bflag_4 >  0.50
|   |   |   |   |   |   |   |   |--- class: 9
|   |   |   |   |   |   |--- eflag_2 >  0.50
|   |   |   |   |   |   |   |--- class: 6
|   |   |   |   |--- cflag_2 >  0.50
|   |   |   |   |   |--- eflag_2 <= 0.50 [最接近值: 2]
|   |   |   |   |   |   |--- bflag_9 <= 0.50 [最接近值: 9]
|   |   |   |   |   |   |   |--- bflag_8 <= 0.50 [最接近值: 8]
|   |   |   |   |   |   |   |   |--- bflag_6 <= 0.50 [最接近值: 6]
|   |   |   |   |   |   |   |   |   |--- bflag_7 <= 0.50 [最接近值: 7]
|   |   |   |   |   |   |   |   |   |   |--- bflag_5 <= 0.50 [最接近值: 5]
|   |   |   |   |   |   |   |   |   |   |   |--- truncated branch of depth 4
|   |   |   |   |   |   |   |   |   |   |--- bflag_5 >  0.50
|   |   |   |   |   |   |   |   |   |   |   |--- class: 5
|   |   |   |   |   |   |   |   |   |--- bflag_7 >  0.50
|   |   |   |   |   |   |   |   |   |   |--- class: 7
|   |   |   |   |   |   |   |   |--- bflag_6 >  0.50
|   |   |   |   |   |   |   |   |   |--- class: 6
|   |   |   |   |   |   |   |--- bflag_8 >  0.50
|   |   |   |   |   |   |   |   |--- class: 8
|   |   |   |   |   |   |--- bflag_9 >  0.50
|   |   |   |   |   |   |   |--- class: 9
|   |   |   |   |   |--- eflag_2 >  0.50
|   |   |   |   |   |   |--- class: 1
|   |   |   |--- cflag_5 >  0.50
|   |   |   |   |--- eflag_1 <= 0.50 [最接近值: 1]
|   |   |   |   |   |--- class: 4
|   |   |   |   |--- eflag_1 >  0.50
|   |   |   |   |   |--- bflag_5 <= 0.50 [最接近值: 5]
|   |   |   |   |   |   |--- bflag_1 <= 0.50 [最接近值: 1]
|   |   |   |   |   |   |   |--- bflag_4 <= 0.50 [最接近值: 4]
|   |   |   |   |   |   |   |   |--- bflag_6 <= 0.50 [最接近值: 6]
|   |   |   |   |   |   |   |   |   |--- bflag_2 <= 0.50 [最接近值: 2]
|   |   |   |   |   |   |   |   |   |   |--- bflag_7 <= 0.50 [最接近值: 7]
|   |   |   |   |   |   |   |   |   |   |   |--- class: 6
|   |   |   |   |   |   |   |   |   |   |--- bflag_7 >  0.50
|   |   |   |   |   |   |   |   |   |   |   |--- class: 10
|   |   |   |   |   |   |   |   |   |--- bflag_2 >  0.50
|   |   |   |   |   |   |   |   |   |   |--- class: 5
|   |   |   |   |   |   |   |   |--- bflag_6 >  0.50
|   |   |   |   |   |   |   |   |   |--- class: 9
|   |   |   |   |   |   |   |--- bflag_4 >  0.50
|   |   |   |   |   |   |   |   |--- class: 7
|   |   |   |   |   |   |--- bflag_1 >  0.50
|   |   |   |   |   |   |   |--- class: 4
|   |   |   |   |   |--- bflag_5 >  0.50
|   |   |   |   |   |   |--- class: 8
|--- dflag_2 >  0.50
|   |--- aflag_a <= 0.50 [最接近值: a]
|   |   |--- eflag_1 <= 0.50 [最接近值: 1]
|   |   |   |--- class: 2
|   |   |--- eflag_1 >  0.50
|   |   |   |--- bflag_2 <= 0.50 [最接近值: 2]
|   |   |   |   |--- bflag_6 <= 0.50 [最接近值: 6]
|   |   |   |   |   |--- bflag_9 <= 0.50 [最接近值: 9]
|   |   |   |   |   |   |--- bflag_7 <= 0.50 [最接近值: 7]
|   |   |   |   |   |   |   |--- bflag_3 <= 0.50 [最接近值: 3]
|   |   |   |   |   |   |   |   |--- bflag_5 <= 0.50 [最接近值: 5]
|   |   |   |   |   |   |   |   |   |--- bflag_1 <= 0.50 [最接近值: 1]
|   |   |   |   |   |   |   |   |   |   |--- bflag_8 <= 0.50 [最接近值: 8]
|   |   |   |   |   |   |   |   |   |   |   |--- class: 4
|   |   |   |   |   |   |   |   |   |   |--- bflag_8 >  0.50
|   |   |   |   |   |   |   |   |   |   |   |--- class: 8
|   |   |   |   |   |   |   |   |   |--- bflag_1 >  0.50
|   |   |   |   |   |   |   |   |   |   |--- class: 1
|   |   |   |   |   |   |   |   |--- bflag_5 >  0.50
|   |   |   |   |   |   |   |   |   |--- class: 5
|   |   |   |   |   |   |   |--- bflag_3 >  0.50
|   |   |   |   |   |   |   |   |--- class: 3
|   |   |   |   |   |   |--- bflag_7 >  0.50
|   |   |   |   |   |   |   |--- class: 7
|   |   |   |   |   |--- bflag_9 >  0.50
|   |   |   |   |   |   |--- class: 9
|   |   |   |   |--- bflag_6 >  0.50
|   |   |   |   |   |--- class: 6
|   |   |   |--- bflag_2 >  0.50
|   |   |   |   |--- class: 2
|   |--- aflag_a >  0.50
|   |   |--- cflag_9 <= 0.50 [最接近值: 9]
|   |   |   |--- cflag_7 <= 0.50 [最接近值: 7]
|   |   |   |   |--- cflag_4 <= 0.50 [最接近值: 4]
|   |   |   |   |   |--- cflag_5 <= 0.50 [最接近值: 5]
|   |   |   |   |   |   |--- cflag_8 <= 0.50 [最接近值: 8]
|   |   |   |   |   |   |   |--- cflag_6 <= 0.50 [最接近值: 6]
|   |   |   |   |   |   |   |   |--- cflag_3 <= 0.50 [最接近值: 3]
|   |   |   |   |   |   |   |   |   |--- cflag_1 <= 0.50 [最接近值: 1]
|   |   |   |   |   |   |   |   |   |   |--- eflag_2 <= 0.50 [最接近值: 2]
|   |   |   |   |   |   |   |   |   |   |   |--- truncated branch of depth 9
|   |   |   |   |   |   |   |   |   |   |--- eflag_2 >  0.50
|   |   |   |   |   |   |   |   |   |   |   |--- class: 2
|   |   |   |   |   |   |   |   |   |--- cflag_1 >  0.50
|   |   |   |   |   |   |   |   |   |   |--- eflag_1 <= 0.50 [最接近值: 1]
|   |   |   |   |   |   |   |   |   |   |   |--- class: 1
|   |   |   |   |   |   |   |   |   |   |--- eflag_1 >  0.50
|   |   |   |   |   |   |   |   |   |   |   |--- truncated branch of depth 9
|   |   |   |   |   |   |   |   |--- cflag_3 >  0.50
|   |   |   |   |   |   |   |   |   |--- eflag_2 <= 0.50 [最接近值: 2]
|   |   |   |   |   |   |   |   |   |   |--- bflag_3 <= 0.50 [最接近值: 3]
|   |   |   |   |   |   |   |   |   |   |   |--- truncated branch of depth 6
|   |   |   |   |   |   |   |   |   |   |--- bflag_3 >  0.50
|   |   |   |   |   |   |   |   |   |   |   |--- class: 4
|   |   |   |   |   |   |   |   |   |--- eflag_2 >  0.50
|   |   |   |   |   |   |   |   |   |   |--- class: 3
|   |   |   |   |   |   |   |--- cflag_6 >  0.50
|   |   |   |   |   |   |   |   |--- eflag_1 <= 0.50 [最接近值: 1]
|   |   |   |   |   |   |   |   |   |--- class: 6
|   |   |   |   |   |   |   |   |--- eflag_1 >  0.50
|   |   |   |   |   |   |   |   |   |--- bflag_1 <= 0.50 [最接近值: 1]
|   |   |   |   |   |   |   |   |   |   |--- bflag_4 <= 0.50 [最接近值: 4]
|   |   |   |   |   |   |   |   |   |   |   |--- truncated branch of depth 7
|   |   |   |   |   |   |   |   |   |   |--- bflag_4 >  0.50
|   |   |   |   |   |   |   |   |   |   |   |--- class: 8
|   |   |   |   |   |   |   |   |   |--- bflag_1 >  0.50
|   |   |   |   |   |   |   |   |   |   |--- class: 5
|   |   |   |   |   |   |--- cflag_8 >  0.50
|   |   |   |   |   |   |   |--- eflag_2 <= 0.50 [最接近值: 2]
|   |   |   |   |   |   |   |   |--- bflag_5 <= 0.50 [最接近值: 5]
|   |   |   |   |   |   |   |   |   |--- bflag_7 <= 0.50 [最接近值: 7]
|   |   |   |   |   |   |   |   |   |   |--- bflag_2 <= 0.50 [最接近值: 2]
|   |   |   |   |   |   |   |   |   |   |   |--- truncated branch of depth 5
|   |   |   |   |   |   |   |   |   |   |--- bflag_2 >  0.50
|   |   |   |   |   |   |   |   |   |   |   |--- class: 8
|   |   |   |   |   |   |   |   |   |--- bflag_7 >  0.50
|   |   |   |   |   |   |   |   |   |   |--- class: 13
|   |   |   |   |   |   |   |   |--- bflag_5 >  0.50
|   |   |   |   |   |   |   |   |   |--- class: 11
|   |   |   |   |   |   |   |--- eflag_2 >  0.50
|   |   |   |   |   |   |   |   |--- class: 8
|   |   |   |   |   |--- cflag_5 >  0.50
|   |   |   |   |   |   |--- eflag_2 <= 0.50 [最接近值: 2]
|   |   |   |   |   |   |   |--- bflag_6 <= 0.50 [最接近值: 6]
|   |   |   |   |   |   |   |   |--- bflag_8 <= 0.50 [最接近值: 8]
|   |   |   |   |   |   |   |   |   |--- bflag_9 <= 0.50 [最接近值: 9]
|   |   |   |   |   |   |   |   |   |   |--- bflag_3 <= 0.50 [最接近值: 3]
|   |   |   |   |   |   |   |   |   |   |   |--- truncated branch of depth 5
|   |   |   |   |   |   |   |   |   |   |--- bflag_3 >  0.50
|   |   |   |   |   |   |   |   |   |   |   |--- class: 6
|   |   |   |   |   |   |   |   |   |--- bflag_9 >  0.50
|   |   |   |   |   |   |   |   |   |   |--- class: 12
|   |   |   |   |   |   |   |   |--- bflag_8 >  0.50
|   |   |   |   |   |   |   |   |   |--- class: 11
|   |   |   |   |   |   |   |--- bflag_6 >  0.50
|   |   |   |   |   |   |   |   |--- class: 9
|   |   |   |   |   |   |--- eflag_2 >  0.50
|   |   |   |   |   |   |   |--- class: 5
|   |   |   |   |--- cflag_4 >  0.50
|   |   |   |   |   |--- eflag_2 <= 0.50 [最接近值: 2]
|   |   |   |   |   |   |--- bflag_1 <= 0.50 [最接近值: 1]
|   |   |   |   |   |   |   |--- bflag_5 <= 0.50 [最接近值: 5]
|   |   |   |   |   |   |   |   |--- bflag_4 <= 0.50 [最接近值: 4]
|   |   |   |   |   |   |   |   |   |--- bflag_8 <= 0.50 [最接近值: 8]
|   |   |   |   |   |   |   |   |   |   |--- bflag_3 <= 0.50 [最接近值: 3]
|   |   |   |   |   |   |   |   |   |   |   |--- truncated branch of depth 4
|   |   |   |   |   |   |   |   |   |   |--- bflag_3 >  0.50
|   |   |   |   |   |   |   |   |   |   |   |--- class: 5
|   |   |   |   |   |   |   |   |   |--- bflag_8 >  0.50
|   |   |   |   |   |   |   |   |   |   |--- class: 10
|   |   |   |   |   |   |   |   |--- bflag_4 >  0.50
|   |   |   |   |   |   |   |   |   |--- class: 6
|   |   |   |   |   |   |   |--- bflag_5 >  0.50
|   |   |   |   |   |   |   |   |--- class: 7
|   |   |   |   |   |   |--- bflag_1 >  0.50
|   |   |   |   |   |   |   |--- class: 3
|   |   |   |   |   |--- eflag_2 >  0.50
|   |   |   |   |   |   |--- class: 4
|   |   |   |--- cflag_7 >  0.50
|   |   |   |   |--- eflag_2 <= 0.50 [最接近值: 2]
|   |   |   |   |   |--- bflag_5 <= 0.50 [最接近值: 5]
|   |   |   |   |   |   |--- bflag_6 <= 0.50 [最接近值: 6]
|   |   |   |   |   |   |   |--- bflag_8 <= 0.50 [最接近值: 8]
|   |   |   |   |   |   |   |   |--- bflag_9 <= 0.50 [最接近值: 9]
|   |   |   |   |   |   |   |   |   |--- bflag_2 <= 0.50 [最接近值: 2]
|   |   |   |   |   |   |   |   |   |   |--- bflag_7 <= 0.50 [最接近值: 7]
|   |   |   |   |   |   |   |   |   |   |   |--- truncated branch of depth 3
|   |   |   |   |   |   |   |   |   |   |--- bflag_7 >  0.50
|   |   |   |   |   |   |   |   |   |   |   |--- class: 12
|   |   |   |   |   |   |   |   |   |--- bflag_2 >  0.50
|   |   |   |   |   |   |   |   |   |   |--- class: 7
|   |   |   |   |   |   |   |   |--- bflag_9 >  0.50
|   |   |   |   |   |   |   |   |   |--- class: 14
|   |   |   |   |   |   |   |--- bflag_8 >  0.50
|   |   |   |   |   |   |   |   |--- class: 13
|   |   |   |   |   |   |--- bflag_6 >  0.50
|   |   |   |   |   |   |   |--- class: 11
|   |   |   |   |   |--- bflag_5 >  0.50
|   |   |   |   |   |   |--- class: 10
|   |   |   |   |--- eflag_2 >  0.50
|   |   |   |   |   |--- class: 7
|   |   |--- cflag_9 >  0.50
|   |   |   |--- eflag_1 <= 0.50 [最接近值: 1]
|   |   |   |   |--- class: 9
|   |   |   |--- eflag_1 >  0.50
|   |   |   |   |--- bflag_4 <= 0.50 [最接近值: 4]
|   |   |   |   |   |--- bflag_5 <= 0.50 [最接近值: 5]
|   |   |   |   |   |   |--- bflag_6 <= 0.50 [最接近值: 6]
|   |   |   |   |   |   |   |--- bflag_1 <= 0.50 [最接近值: 1]
|   |   |   |   |   |   |   |   |--- bflag_3 <= 0.50 [最接近值: 3]
|   |   |   |   |   |   |   |   |   |--- bflag_2 <= 0.50 [最接近值: 2]
|   |   |   |   |   |   |   |   |   |   |--- bflag_8 <= 0.50 [最接近值: 8]
|   |   |   |   |   |   |   |   |   |   |   |--- truncated branch of depth 2
|   |   |   |   |   |   |   |   |   |   |--- bflag_8 >  0.50
|   |   |   |   |   |   |   |   |   |   |   |--- class: 15
|   |   |   |   |   |   |   |   |   |--- bflag_2 >  0.50
|   |   |   |   |   |   |   |   |   |   |--- class: 9
|   |   |   |   |   |   |   |   |--- bflag_3 >  0.50
|   |   |   |   |   |   |   |   |   |--- class: 10
|   |   |   |   |   |   |   |--- bflag_1 >  0.50
|   |   |   |   |   |   |   |   |--- class: 8
|   |   |   |   |   |   |--- bflag_6 >  0.50
|   |   |   |   |   |   |   |--- class: 13
|   |   |   |   |   |--- bflag_5 >  0.50
|   |   |   |   |   |   |--- class: 12
|   |   |   |   |--- bflag_4 >  0.50
|   |   |   |   |   |--- class: 11
