digraph Tree {
node [shape=box, style="filled", color="black", fontname="helvetica"] ;
edge [fontname="helvetica"] ;
0 [label="dflag_b <= 0.5\ngini = 0.667\nsamples = 12\nvalue = [4, 4, 4]\nclass = a", fillcolor="#ffffff"] ;
1 [label="bflag_c <= 0.5\ngini = 0.64\nsamples = 10\nvalue = [4, 2, 4]\nclass = a", fillcolor="#ffffff"] ;
0 -> 1 [labeldistance=2.5, labelangle=45, headlabel="True"] ;
2 [label="bflag_b <= 0.5\ngini = 0.625\nsamples = 8\nvalue = [4, 2, 2]\nclass = a", fillcolor="#f6d5bd"] ;
1 -> 2 ;
3 [label="bflag_dd <= 0.5\ngini = 0.571\nsamples = 7\nvalue = [4, 1, 2]\nclass = a", fillcolor="#f5cdb0"] ;
2 -> 3 ;
4 [label="bflag_f <= 0.5\ngini = 0.444\nsamples = 6\nvalue = [4, 0, 2]\nclass = a", fillcolor="#f2c09c"] ;
3 -> 4 ;
5 [label="cflag_d <= 0.5\ngini = 0.32\nsamples = 5\nvalue = [4, 0, 1]\nclass = a", fillcolor="#eca06a"] ;
4 -> 5 ;
6 [label="gini = 0.0\nsamples = 4\nvalue = [4, 0, 0]\nclass = a", fillcolor="#e58139"] ;
5 -> 6 ;
7 [label="gini = 0.0\nsamples = 1\nvalue = [0, 0, 1]\nclass = c", fillcolor="#8139e5"] ;
5 -> 7 ;
8 [label="gini = 0.0\nsamples = 1\nvalue = [0, 0, 1]\nclass = c", fillcolor="#8139e5"] ;
4 -> 8 ;
9 [label="gini = 0.0\nsamples = 1\nvalue = [0, 1, 0]\nclass = b", fillcolor="#39e581"] ;
3 -> 9 ;
10 [label="gini = 0.0\nsamples = 1\nvalue = [0, 1, 0]\nclass = b", fillcolor="#39e581"] ;
2 -> 10 ;
11 [label="gini = 0.0\nsamples = 2\nvalue = [0, 0, 2]\nclass = c", fillcolor="#8139e5"] ;
1 -> 11 ;
12 [label="gini = 0.0\nsamples = 2\nvalue = [0, 2, 0]\nclass = b", fillcolor="#39e581"] ;
0 -> 12 [labeldistance=2.5, labelangle=-45, headlabel="False"] ;
}